4.203687012195587158e-01
2.187611758708953857e-01
4.570617526769638062e-02
4.648852348327636719e-02
-6.291329264640808105e-01
3.800556296482682228e-04
-8.693759888410568237e-02
5.446177124977111816e-01
8.745832741260528564e-02
3.203757703304290771e-01
-5.431678891181945801e-02
3.233921825885772705e-01
3.642739653587341309e-01
-2.828054130077362061e-01
-5.622226744890213013e-02
2.173020094633102417e-01
4.080658257007598877e-01
2.622106671333312988e-01
-5.145024061203002930e-01
-2.963759601116180420e-01
1.600316017866134644e-01
-2.552387714385986328e-01
-2.934356629848480225e-01
2.251318246126174927e-01
4.786288142204284668e-01
6.640638411045074463e-02
3.962539434432983398e-01
-1.564152091741561890e-01
-1.586580872535705566e-01
-6.387201547622680664e-01
2.327576279640197754e-01
-3.585815727710723877e-01
4.701432287693023682e-01
-3.032119572162628174e-02
2.762995660305023193e-01
-8.393578529357910156e-01
-2.505499720573425293e-01
7.306103110313415527e-01
3.383702933788299561e-01
-4.525953829288482666e-01
3.981984555721282959e-01
-1.750677675008773804e-01
-4.194568693637847900e-01
-3.510639071464538574e-02
-4.467267543077468872e-02
3.702792823314666748e-01
5.732298493385314941e-01
-1.302915364503860474e-01
2.864699363708496094e-01
2.059993799775838852e-03
2.760481238365173340e-01
1.229172796010971069e-01
-3.057426959276199341e-02
-2.479927688837051392e-01
4.377785921096801758e-01
3.380190581083297729e-03
6.749023795127868652e-01
-9.142569452524185181e-02
4.091129302978515625e-01
-7.292579412460327148e-01
-1.311096847057342529e-01
2.303692251443862915e-01
2.047864794731140137e-01
1.855400353670120239e-01
3.633640408515930176e-01
3.247036337852478027e-01
-5.227000638842582703e-02
1.953670084476470947e-01
3.150032162666320801e-01
-3.432574272155761719e-01
-3.427207842469215393e-02
-7.214764356613159180e-01
-3.212441876530647278e-02
-2.959589660167694092e-01
5.667703747749328613e-01
5.545810461044311523e-01
-5.188084393739700317e-02
1.598289459943771362e-01
-9.984293021261692047e-03
-6.702040135860443115e-02
-2.942581772804260254e-01
-3.989220559597015381e-01
-3.173955082893371582e-01
3.121262788772583008e-01
3.164331614971160889e-01
2.493908703327178955e-01
1.388931870460510254e-01
6.138931512832641602e-01
-1.203788295388221741e-01
3.219019174575805664e-01
2.392855286598205566e-01
-7.351247072219848633e-01
8.417468518018722534e-02
-4.739512130618095398e-02
3.883722424507141113e-02
2.390443347394466400e-02
-1.332731842994689941e-01
7.741879224777221680e-01
-2.032767981290817261e-01
2.239161133766174316e-01
