-7.590703964233398438e-01
-3.867904543876647949e-01
-2.937711477279663086e-01
-9.777542203664779663e-02
-7.077729701995849609e-01
-6.062465310096740723e-01
-2.231115549802780151e-01
-3.275264203548431396e-01
-5.399617552757263184e-01
-5.395726561546325684e-01
-5.726646780967712402e-01
-5.041102766990661621e-01
3.788619637489318848e-01
-5.386079549789428711e-01
-8.873573541641235352e-01
2.446611672639846802e-01
-4.300038814544677734e-01
-5.153302550315856934e-01
-1.213645860552787781e-01
-7.104446291923522949e-01
-1.221230253577232361e-01
-9.442391395568847656e-01
-6.258526444435119629e-01
-7.211874127388000488e-01
-4.808443188667297363e-01
-4.306599795818328857e-01
-3.323539495468139648e-01
-6.069039702415466309e-01
-7.787144780158996582e-01
-7.951632738113403320e-01
-7.522656321525573730e-01
-8.672024607658386230e-01
-6.304643154144287109e-01
-2.453880161046981812e-01
-3.633442223072052002e-01
-2.291896641254425049e-01
-7.730129957199096680e-01
-6.927033066749572754e-01
-6.637985110282897949e-01
-6.357724070549011230e-01
-2.362881600856781006e-01
-7.037812471389770508e-01
-4.486173689365386963e-01
-1.028524756431579590e+00
-9.871495962142944336e-01
-7.822248339653015137e-01
-6.789757013320922852e-01
-6.810722351074218750e-01
-5.204978585243225098e-01
-5.459913015365600586e-01
2.594576179981231689e-01
-7.398170828819274902e-01
-1.465517580509185791e-01
-8.424360752105712891e-01
-4.899078905582427979e-01
-5.848315358161926270e-01
-8.927354216575622559e-01
-5.676796436309814453e-01
-3.695007860660552979e-01
-2.066155374050140381e-01
-6.721098423004150391e-01
-4.660112261772155762e-01
-6.501812934875488281e-01
-4.890627861022949219e-01
-3.549337983131408691e-01
-7.364352345466613770e-01
-6.872668862342834473e-01
-7.854671478271484375e-01
-8.574331998825073242e-01
-4.309658408164978027e-01
-6.857560873031616211e-01
-1.171950697898864746e+00
-3.904379308223724365e-01
-3.031678497791290283e-01
-2.009875178337097168e-01
-5.625875592231750488e-01
-2.571364939212799072e-01
-5.153781771659851074e-01
-2.128426879644393921e-01
-7.664572596549987793e-01
-9.852265715599060059e-01
-3.601414263248443604e-01
-8.777667284011840820e-01
-4.589241147041320801e-01
-4.187792837619781494e-01
-5.732847452163696289e-01
-7.731395959854125977e-01
-2.949669659137725830e-01
-7.538135051727294922e-01
-1.270012408494949341e-01
-6.088563799858093262e-01
3.904933482408523560e-02
-2.436660379171371460e-01
-4.271710216999053955e-01
-4.971876740455627441e-01
-7.617180943489074707e-01
-2.357654869556427002e-01
-2.957499921321868896e-01
-7.239465713500976562e-01
-6.870940327644348145e-01
3.876470327377319336e-01
6.601242423057556152e-01
8.721063137054443359e-01
4.320310652256011963e-01
8.285957574844360352e-01
8.712767362594604492e-01
5.237180590629577637e-01
1.050765395164489746e+00
6.685495972633361816e-01
3.461798131465911865e-01
8.025974035263061523e-01
9.216619729995727539e-01
6.274902224540710449e-01
4.889015853404998779e-01
8.143087029457092285e-01
1.190692543983459473e+00
9.041689634323120117e-01
3.594293296337127686e-01
8.379345536231994629e-01
8.288043737411499023e-01
2.239818125963211060e-01
1.077728748321533203e+00
3.177035152912139893e-01
3.431916534900665283e-01
7.425926923751831055e-01
9.953862428665161133e-01
1.045015573501586914e+00
9.047870635986328125e-01
8.013409376144409180e-01
1.095343351364135742e+00
1.227729544043540955e-01
1.770830154418945312e-01
6.946498751640319824e-01
1.018250942230224609e+00
9.792592525482177734e-01
1.318869829177856445e+00
1.380464196205139160e+00
1.091500997543334961e+00
8.189196586608886719e-01
9.394858479499816895e-01
7.582663297653198242e-01
7.423570752143859863e-01
8.871940970420837402e-01
1.408746957778930664e+00
2.955104708671569824e-01
8.112906217575073242e-01
7.584187388420104980e-01
7.480474710464477539e-01
6.870695948600769043e-01
4.679041504859924316e-01
9.168304204940795898e-01
7.634690999984741211e-01
-4.308503586798906326e-03
9.523931741714477539e-01
4.284375905990600586e-01
6.304087042808532715e-01
4.885939359664916992e-01
8.191375732421875000e-01
9.879954159259796143e-02
-1.621274054050445557e-01
5.458019971847534180e-01
1.074664592742919922e+00
9.053999781608581543e-01
1.138798594474792480e+00
1.022305011749267578e+00
5.882907509803771973e-01
4.084508717060089111e-01
8.546724319458007812e-01
6.608671545982360840e-01
9.978556632995605469e-01
8.777691721916198730e-01
1.151755452156066895e+00
4.547986388206481934e-01
7.588201761245727539e-01
1.487226843833923340e+00
7.312807440757751465e-01
8.519983887672424316e-01
9.908598065376281738e-01
1.505752205848693848e+00
1.030305504798889160e+00
9.802238941192626953e-01
9.424355030059814453e-01
3.673879206180572510e-01
1.296103715896606445e+00
7.463297843933105469e-01
1.902890652418136597e-01
1.171087697148323059e-01
9.651378989219665527e-01
1.069273352622985840e+00
1.199150681495666504e+00
1.070805191993713379e+00
1.136334180831909180e+00
1.006938099861145020e+00
3.666571676731109619e-01
2.567541897296905518e-01
1.566131830215454102e+00
4.985926449298858643e-01
9.887375235557556152e-01
5.568067431449890137e-01
5.744606256484985352e-01
8.322646468877792358e-02
-3.012348711490631104e-01
1.551048904657363892e-01
4.042644500732421875e-01
-9.148099273443222046e-02
4.102634787559509277e-01
-4.704124853014945984e-02
1.031814366579055786e-01
1.455218181945383549e-03
-1.136429980397224426e-01
1.646987199783325195e-01
1.229124218225479126e-01
4.871740937232971191e-01
-1.728030145168304443e-01
-3.266528546810150146e-01
1.769974976778030396e-01
-1.305724233388900757e-01
1.494129747152328491e-01
6.493769586086273193e-02
-6.932792812585830688e-02
-3.972589373588562012e-01
6.233134120702743530e-02
-1.931855231523513794e-01
-2.890332043170928955e-01
-2.661671340465545654e-01
1.866980642080307007e-01
2.752366065979003906e-01
1.587017439305782318e-02
6.815538555383682251e-02
-7.572779059410095215e-02
1.483568847179412842e-01
-2.598169744014739990e-01
-5.728655494749546051e-03
2.955616414546966553e-01
-5.470963567495346069e-02
-3.325810134410858154e-01
-3.844932615756988525e-01
3.933218717575073242e-01
-2.160686254501342773e-01
-2.496981173753738403e-01
3.557889163494110107e-01
-3.490276634693145752e-01
-1.654058545827865601e-01
-2.143483906984329224e-01
-3.117483258247375488e-01
1.098025441169738770e-01
-1.312955170869827271e-01
3.774915635585784912e-02
3.152558505535125732e-01
-2.908883392810821533e-01
7.753468155860900879e-01
-3.327187299728393555e-01
-2.287787497043609619e-01
-4.082305133342742920e-01
-2.650154829025268555e-01
-1.801027357578277588e-01
-4.076987504959106445e-01
-9.892605245113372803e-02
-3.667192757129669189e-01
-1.643227934837341309e-01
-2.215336114168167114e-01
2.044518887996673584e-01
-2.726222872734069824e-01
2.341715842485427856e-01
-2.109562307596206665e-01
-2.139279097318649292e-01
-1.985186189413070679e-01
-1.438617855310440063e-01
-3.569698035717010498e-01
-2.047087997198104858e-01
1.829943805932998657e-01
9.669333696365356445e-03
-7.101975381374359131e-02
-2.080646455287933350e-01
3.126201629638671875e-01
-3.877177536487579346e-01
3.810362219810485840e-01
1.535311192274093628e-01
1.910263597965240479e-01
-1.691058129072189331e-01
-9.073831886053085327e-02
3.134830296039581299e-01
-6.592592597007751465e-01
-8.205172419548034668e-02
2.311999797821044922e-01
-1.779496222734451294e-01
-2.937119640409946442e-02
-1.658759713172912598e-01
-3.392472565174102783e-01
2.503059804439544678e-01
-3.067568540573120117e-01
2.715783566236495972e-02
-3.097314834594726562e-01
-3.620606660842895508e-02
-1.785214990377426147e-01
-1.833817958831787109e-01
2.510305307805538177e-02
4.083510339260101318e-01
-3.408080935478210449e-01
-2.441841959953308105e-01
-7.332341074943542480e-01
-5.017803907394409180e-01
-3.873857259750366211e-01
-5.795835331082344055e-02
-1.624383479356765747e-01
-5.732170343399047852e-01
-3.609630763530731201e-01
-2.560946941375732422e-01
-8.267307281494140625e-01
-8.301829695701599121e-01
-6.934115886688232422e-01
-5.619860887527465820e-01
-1.038387119770050049e-01
-6.266548037528991699e-01
-7.821081280708312988e-01
-4.182382524013519287e-01
-5.491985678672790527e-01
-5.248244404792785645e-01
-5.358961820602416992e-01
-9.745683073997497559e-01
-7.514543533325195312e-01
-4.538424313068389893e-01
-8.402003049850463867e-01
-8.535237312316894531e-01
-5.439205467700958252e-02
-2.985429763793945312e-01
-2.990933954715728760e-01
-8.442254662513732910e-01
-5.590387582778930664e-01
-6.794532537460327148e-01
-4.188082814216613770e-01
-3.449388146400451660e-01
-4.060173332691192627e-01
-4.343470036983489990e-01
-4.596256613731384277e-01
-8.102485537528991699e-01
-5.197500586509704590e-01
-6.163078546524047852e-01
-5.618546605110168457e-01
-1.841455250978469849e-01
-1.248202174901962280e-01
-6.186822652816772461e-01
-2.595095634460449219e-01
-1.122790098190307617e+00
-5.692765712738037109e-01
-8.271632194519042969e-01
-7.005527019500732422e-01
-6.466727256774902344e-01
-3.887119293212890625e-01
-4.664288163185119629e-01
8.159541487693786621e-01
-5.859089493751525879e-01
-7.892037034034729004e-01
-8.093594908714294434e-01
-7.972790598869323730e-01
-8.998622894287109375e-01
-9.873920679092407227e-01
-9.643687307834625244e-02
-8.227834105491638184e-01
-5.337147712707519531e-01
-4.283136427402496338e-01
-2.827768623828887939e-01
-2.837045192718505859e-01
-5.204667448997497559e-01
-3.638155162334442139e-01
-5.136085152626037598e-01
-9.841028451919555664e-01
-2.983475625514984131e-01
-7.179756164550781250e-01
-4.910015761852264404e-01
-4.127296507358551025e-01
-5.635250806808471680e-01
-3.059231340885162354e-01
-3.064108490943908691e-01
-3.051376342773437500e-01
-6.008065342903137207e-01
-3.998043835163116455e-01
-6.231976151466369629e-01
-9.196839332580566406e-01
-8.307906389236450195e-01
-6.545173525810241699e-01
-4.778143763542175293e-01
-8.633012771606445312e-01
-4.034614264965057373e-01
-7.878499031066894531e-01
-7.431153059005737305e-01
-9.607410430908203125e-01
-1.299589574337005615e-01
-5.395419001579284668e-01
-1.064077466726303101e-01
-4.458859562873840332e-01
-8.125074207782745361e-03
-4.865653216838836670e-01
-3.719530105590820312e-01
-7.376114130020141602e-01
-6.733168363571166992e-01
-2.862762510776519775e-01
-7.304832935333251953e-01
-6.087237000465393066e-01
-6.146278977394104004e-01
